{
    "lambda_reg_0": {
        "cost": [
            0.6886050099033187,
            0.44569600967068956,
            0.347812146810382,
            0.2996869425495173,
            0.2718335110364321,
            0.2535752753089615,
            0.2405478086356874,
            0.23070136168012345,
            0.2229508933489946,
            0.2166656351910402
        ],
        "accuracy": [
            0.694534,
            0.831398,
            0.875718,
            0.899091,
            0.910681,
            0.917515,
            0.921832,
            0.924751,
            0.92697,
            0.928654
        ],
        "w": [
            -0.20586329165292797,
            -0.9502758558933685,
            -0.26057076887930064,
            -0.07851622675084191,
            -1.0664448385203198,
            0.9247078821153507,
            0.25718564637109764,
            -0.9758579648862264,
            0.43297396510031405,
            0.9834189326789055,
            0.45876937211266255
        ],
        "b": -0.13505061335735694
    },
    "lambda_reg_0.01": {
        "cost": [
            0.7671542458599101,
            0.45597815744104664,
            0.35119492791073215,
            0.3028866731053338,
            0.27489486190081436,
            0.25643773300596845,
            0.24327270189581568,
            0.23337764274998238,
            0.2256562768419275,
            0.21945817174717341
        ],
        "accuracy": [
            0.527204,
            0.795724,
            0.870573,
            0.89598,
            0.907989,
            0.914816,
            0.920019,
            0.923287,
            0.925729,
            0.927537
        ],
        "w": [
            -0.19654587467436602,
            -0.7989767710366298,
            -0.20048823045268185,
            -0.13149110044481865,
            -1.019036911894618,
            0.9624864775015276,
            0.23350332118788855,
            -1.1267093996364033,
            0.49008150084963426,
            0.8542286318812863,
            0.5261327046323782
        ],
        "b": -0.07629340935931117
    },
    "lambda_reg_0.1": {
        "cost": [
            0.5797100806882903,
            0.3913231007472749,
            0.32585770700203265,
            0.29387908250388917,
            0.27510301350376287,
            0.26285548252692714,
            0.2543179079041217,
            0.24809010819268137,
            0.24339488656802422,
            0.23976516413439827
        ],
        "accuracy": [
            0.671094,
            0.863649,
            0.902557,
            0.9131,
            0.919503,
            0.923792,
            0.926525,
            0.928303,
            0.929777,
            0.930865
        ],
        "w": [
            -0.18097722208445474,
            -0.8865529580390255,
            -0.21186077509019494,
            -0.10606709543566742,
            -1.116333367863575,
            0.9640841047817094,
            0.1863516277151762,
            -0.9174627660896094,
            0.3906952731673494,
            0.7647259837281658,
            0.5588215480506549
        ],
        "b": -0.05751320509595079
    },
    "lambda_reg_0.3": {
        "cost": [
            0.6634049985759298,
            0.44116149366045754,
            0.36447386634121637,
            0.3306049206187142,
            0.3127256523415627,
            0.3021974151033192,
            0.2955607451944897,
            0.29118400460166605,
            0.2882042594377815,
            0.2861269052346942
        ],
        "accuracy": [
            0.65615,
            0.844439,
            0.894301,
            0.909787,
            0.918187,
            0.922868,
            0.925627,
            0.927474,
            0.928704,
            0.929746
        ],
        "w": [
            -0.2107285825240054,
            -0.7469795771925785,
            -0.24723857871610094,
            -0.11146892684334131,
            -0.9237390253940414,
            0.8406700019453996,
            0.1945004746225199,
            -0.8847388222824294,
            0.3605190526020439,
            0.6612112678321114,
            0.460281987169229
        ],
        "b": -0.04537910968301538
    },
    "lambda_reg_0.5": {
        "cost": [
            0.6036387455712269,
            0.41531810796978846,
            0.3641713373963617,
            0.34301117602785247,
            0.33240866245063816,
            0.32653351162263167,
            0.3230747356816661,
            0.3209546230818032,
            0.3196166719063238,
            0.3187533308787067
        ],
        "accuracy": [
            0.690052,
            0.866686,
            0.899111,
            0.911043,
            0.917421,
            0.921181,
            0.923511,
            0.925247,
            0.926754,
            0.927682
        ],
        "w": [
            -0.1770463489140859,
            -0.6412094470678007,
            -0.2218178878933954,
            -0.1258654938790803,
            -0.8476950235250448,
            0.6006288010418945,
            0.1341205489248159,
            -0.8811743530497487,
            0.3665861392684658,
            0.5582992874085914,
            0.42805296677334326
        ],
        "b": -0.06220444440144895
    },
    "lambda_reg_0.7": {
        "cost": [
            0.6914920286221136,
            0.46609554450868135,
            0.3966255484821885,
            0.3697805976339229,
            0.35760732963921654,
            0.351540783227363,
            0.34833924842581965,
            0.3465850563151257,
            0.34559802972899706,
            0.34503139534620153
        ],
        "accuracy": [
            0.668277,
            0.830289,
            0.892531,
            0.909111,
            0.917434,
            0.922053,
            0.924721,
            0.92644,
            0.927396,
            0.92805
        ],
        "w": [
            -0.17150012259562977,
            -0.6190014825839056,
            -0.2171142369101999,
            -0.10612541228438249,
            -0.7973753824491748,
            0.5582077166689693,
            0.10352278673039766,
            -0.7403031769146514,
            0.28323954813451546,
            0.5333504265728324,
            0.4077491166361078
        ],
        "b": -0.07248818353445108
    },
    "lambda_reg_0.9": {
        "cost": [
            0.7347984289251964,
            0.46403684495514363,
            0.4041109654146568,
            0.3836404288010862,
            0.3748369232039146,
            0.3706276666489508,
            0.3684966457526365,
            0.36737821186672337,
            0.36677596818934016,
            0.3664451615572821
        ],
        "accuracy": [
            0.624403,
            0.843196,
            0.897622,
            0.910892,
            0.916727,
            0.920421,
            0.92286,
            0.924353,
            0.925264,
            0.925962
        ],
        "w": [
            -0.17370978690033384,
            -0.5394062776379528,
            -0.20167854481276015,
            -0.12230294850677662,
            -0.7023566106826329,
            0.4821357827987343,
            0.06709303108371673,
            -0.7297331848077716,
            0.27801664322610803,
            0.4761094429839504,
            0.3568440971213354
        ],
        "b": -0.052527741803244814
    }
}